<?xml version="1.0"?>
<opencv_storage>
<my_svm type_id="opencv-ml-svm">
  <svm_type>C_SVC</svm_type>
  <kernel><type>LINEAR</type></kernel>
  <C>1.</C>
  <term_criteria><epsilon>9.9999999747524271e-07</epsilon>
    <iterations>2147483647</iterations></term_criteria>
  <var_all>162</var_all>
  <var_count>162</var_count>
  <class_count>2</class_count>
  <class_labels type_id="opencv-matrix">
    <rows>1</rows>
    <cols>2</cols>
    <dt>i</dt>
    <data>
      -1 1</data></class_labels>
  <sv_total>1</sv_total>
  <support_vectors>
    <_>
      2.74281430e+00 9.57990074e+00 6.94793081e+00 4.54167652e+00
      4.29158878e+00 1.07055020e+00 4.63301373e+00 3.57846648e-01
      -3.78338957e+00 -1.46795261e+00 -2.85311413e+00 -2.44157910e+00
      -5.59817219e+00 2.29396391e+00 2.25939512e+00 4.00978699e-02
      -1.31802392e+00 -1.93662965e+00 -2.28064466e+00 -2.86755204e+00
      2.39583564e+00 -3.94035876e-01 3.09527802e+00 -5.47852325e+00
      -2.00095892e+00 -5.41470575e+00 -1.49731231e+00 -3.42140651e+00
      -2.36823702e+00 -3.28698134e+00 -4.89974165e+00 -2.63358140e+00
      -2.37794423e+00 1.24891424e+00 -8.35954249e-01 -2.31629634e+00
      -3.46095532e-01 7.04126582e-02 -1.02628922e+00 -8.24407399e-01
      -1.85254538e+00 -4.46632624e-01 -1.55245686e+00 -1.19150412e+00
      7.37684309e-01 4.14702415e+00 -1.90691638e+00 -1.80698919e+00
      2.66012460e-01 -6.12457991e+00 -4.41566324e+00 -2.74271190e-01
      2.64642984e-01 2.97271085e+00 2.73224258e+00 -7.06891358e-01
      -9.05914426e-01 2.21377206e+00 2.93371034e+00 1.08690605e-01
      -4.77571309e-01 -1.89817500e+00 -1.05294675e-01 -1.60022044e+00
      -1.39557445e+00 -3.71478629e+00 -3.31000876e+00 -4.18410158e+00
      -3.71887422e+00 -1.86863339e+00 1.21233130e+00 -2.77675509e+00
      -1.14981580e+00 -3.21499944e+00 9.90084231e-01 2.00477266e+00
      -1.19084740e+00 6.60206378e-01 -1.12672448e+00 -1.57873368e+00
      3.24276835e-02 3.05918962e-01 -2.86402464e-01 1.21644139e+00
      1.32234526e+00 6.98873103e-01 5.59502900e-01 -3.48549515e-01
      -1.04472446e+00 -8.02329242e-01 -2.97282815e+00 2.19372773e+00
      1.82523870e+00 -4.02795219e+00 -2.77780724e+00 -2.83803439e+00
      -3.61390758e+00 2.63342708e-01 -3.40667129e+00 -2.16287684e+00
      -1.79330194e+00 2.90760305e-02 1.06608307e+00 6.94156945e-01
      2.22665384e-01 4.79693711e-01 -3.29197454e+00 -2.13021421e+00
      -4.04977846e+00 -9.23879147e-01 -2.67315924e-01 -2.92954993e+00
      -3.66628742e+00 -3.53229880e+00 -2.04408097e+00 -2.50556588e+00
      -4.24113131e+00 -8.09169710e-02 5.68784535e-01 -8.98289621e-01
      -9.34345543e-01 1.14928699e+00 -6.64147615e-01 2.53944308e-01
      8.44896615e-01 1.39718068e+00 2.75230169e+00 -1.54993272e+00
      -3.90872300e-01 -4.01986217e+00 -5.44420528e+00 -1.56475276e-01
      1.30241632e-01 -1.59456646e+00 3.09548473e+00 -2.15253377e+00
      1.54903126e+00 3.71743202e+00 1.51109457e+00 3.59449720e+00
      4.12523985e+00 4.98983669e+00 4.97093058e+00 7.54780710e-01
      -1.98182690e+00 -6.88174367e-01 -3.44803691e-01 1.21320617e+00
      1.65773046e+00 -4.95079613e+00 -4.10665941e+00 -7.97891259e-01
      -2.72525215e+00 -1.83792222e+00 -5.14078712e+00 -2.70206928e+00
      -4.99282169e+00 -1.42843306e-01 2.39474702e+00 7.58392960e-02
      -3.33927298e+00 -2.13261819e+00</_></support_vectors>
  <decision_functions>
    <_>
      <sv_count>1</sv_count>
      <rho>-1.6095934372357409e+01</rho>
      <alpha>
        1.</alpha>
      <index>
        0</index></_></decision_functions></my_svm>
</opencv_storage>
